{"W": [[2.2755532264709473, -0.11769898980855942, -0.0007002071943134069, -0.15963147580623627, 0.448743999004364, -0.021397070959210396, -1.1214615106582642], [-0.14595560729503632, 3.3690130710601807, -0.061415888369083405, -0.16391055285930634, -0.4376910328865051, -1.2573496103286743, 0.16584347188472748], [-2.3313610553741455, -1.3550915718078613, -1.845672369003296, 0.41395261883735657, -1.0047688484191895, -0.3260073661804199, 1.0606054067611694], [3.4413042068481445, -1.2605856657028198, -1.8108512163162231, -0.3794320523738861, -1.0867736339569092, -1.7730257511138916, 0.2848662734031677], [-0.11458225548267365, 1.5502351522445679, -1.486485242843628, 0.8131516575813293, -1.5479308366775513, 0.86479252576828, -1.1164851188659668], [-1.1583764553070068, -0.2732820212841034, -1.839142918586731, 0.5132203698158264, 1.1605788469314575, -1.1840763092041016, 1.1223589181900024], [0.004352135583758354, -0.04824938252568245, -0.1829785853624344, 0.2561478614807129, -0.1408110409975052, -1.287154197692871, 0.7051247954368591], [1.399587869644165, -2.4759628772735596, 0.7658424973487854, 0.6501561999320984, 0.912653923034668, -2.371992588043213, -2.323356866836548], [0.7953325510025024, 2.470630168914795, 0.9861872792243958, 0.5509633421897888, 0.6560160517692566, -0.5190805196762085, -2.971545457839966], [-1.4324994087219238, 0.37872248888015747, 0.688807487487793, -2.317070722579956, -0.49851417541503906, 0.5536186099052429, -0.7730333209037781], [-0.254623681306839, -0.2893410325050354, 0.6127485036849976, -0.4906056821346283, -0.5315655469894409, -0.0520445890724659, 1.0120642185211182], [-0.05115318298339844, -0.2815549373626709, -0.6515970230102539, 1.7440197467803955, -1.3601558208465576, -0.22948873043060303, -0.9982151985168457], [0.8647578954696655, 0.18340931832790375, 0.3889828324317932, -0.5712474584579468, 1.012367844581604, 1.3857736587524414, 0.8261987566947937], [-0.2515856921672821, -0.16462799906730652, 0.9784119725227356, -0.5986415147781372, -1.3511544466018677, -2.5916101932525635, -1.0126581192016602], [-0.8712610602378845, -0.6715063452720642, -0.12128472328186035, -0.6995294094085693, -1.0022438764572144, -0.2362821102142334, -0.8334705829620361], [1.4739575386047363, 0.5430103540420532, 0.05973917618393898, -0.39425086975097656, -0.30346056818962097, -0.7215471863746643, 0.34423211216926575]], "b": [-0.8817396759986877, -0.6164527535438538, 0.6502236723899841, 0.008835507556796074, -0.5755485892295837, -0.5525751709938049, 1.1215516328811646]}