{"W": [[1.154704213142395, -1.3030067682266235, -2.9541585445404053, -0.33002278208732605, -1.3345364332199097, 0.5702365040779114, -2.2520110607147217], [-0.7400397658348083, 2.2733707427978516, -2.2890570163726807, -0.4257299602031708, 0.102548748254776, -0.7721691131591797, -1.1182382106781006], [-2.8106725215911865, -0.5709980130195618, -0.704967200756073, 0.765414834022522, 0.00517756724730134, -0.504393458366394, 1.9311097860336304], [2.745187520980835, -0.8247758746147156, -0.11377383023500443, -0.7893592715263367, -0.8542587757110596, -1.7289748191833496, 1.013249158859253], [-0.04816595837473869, 1.8918533325195312, -1.0317761898040771, 0.07057508081197739, -0.9711524248123169, 1.8589357137680054, -0.21019025146961212], [-0.02145223878324032, -1.0428539514541626, -2.0413904190063477, 2.189161777496338, 0.9269816279411316, -0.8316745162010193, 0.4401319622993469], [-0.1783151775598526, 0.5269953608512878, 0.7213423252105713, -0.039358898997306824, 0.36264631152153015, -1.4962573051452637, 0.9888626337051392], [0.7101945877075195, -1.054238200187683, 0.8601582646369934, 2.007716417312622, 1.838212251663208, -0.7250580787658691, -1.1401690244674683], [1.2510441541671753, 1.6525510549545288, 1.9294556379318237, -0.0002302448556292802, 1.6809371709823608, -0.7600240707397461, -1.4725199937820435], [0.11599379777908325, 1.1959939002990723, 0.26394572854042053, -1.224556565284729, 0.49225252866744995, 1.5995416641235352, -0.3108358085155487], [-0.5377772450447083, -0.5065013766288757, 0.5242835879325867, -1.5780867338180542, -0.10782816261053085, -0.8439501523971558, 0.5921462178230286], [0.03876675292849541, 0.10077310353517532, -1.2841426134109497, 0.6447431445121765, 0.5507657527923584, -1.0702030658721924, -1.076393485069275], [-0.19144605100154877, -0.5057758688926697, -0.4219951331615448, -1.5609791278839111, 0.35922035574913025, 0.7581205368041992, 0.16316631436347961], [0.20993858575820923, 1.221259355545044, 2.1003992557525635, 1.749529242515564, -0.8990609049797058, -2.953523874282837, -0.4718295931816101], [0.16498681902885437, 0.8116932511329651, 0.08185560256242752, 0.148355633020401, -0.20889656245708466, -0.829862654209137, 0.49182915687561035], [0.21449190378189087, -1.0555914640426636, -0.9270108342170715, -0.8036158680915833, -1.658560037612915, -0.2918751537799835, -1.2310078144073486]], "b": [1.3955113887786865, -0.08055107295513153, 0.9100648164749146, -0.45929720997810364, -2.061657428741455, -0.5666789412498474, 0.7754071354866028]}