{"W": [[3.2107903957366943, 0.39453694224357605, -0.8010371923446655, 0.8367976546287537, 0.18892228603363037, 1.5480108261108398, -1.2051588296890259], [0.000137077528052032, 3.619325876235962, -1.3442844152450562, 1.2436044216156006, 0.26688891649246216, -0.7771226763725281, -1.402628779411316], [-2.894818067550659, -0.7733109593391418, -0.4779641032218933, 0.4234202802181244, 1.2164745330810547, 1.270422101020813, 1.5616201162338257], [2.287451982498169, 0.23380553722381592, 0.08509660512208939, -0.4258553385734558, 0.330948144197464, -0.12849479913711548, 2.1420936584472656], [-0.3395378887653351, 0.12283015996217728, -1.1340304613113403, -0.6540021896362305, -1.0062179565429688, 0.7546078562736511, -1.7420382499694824], [-0.36464062333106995, -0.7625475525856018, -2.1343071460723877, 1.400007963180542, 0.20954783260822296, -1.9816641807556152, 0.057354886084795], [0.10862371325492859, 0.1543029099702835, 0.8381376266479492, 0.4008771777153015, 0.16413725912570953, -1.1062783002853394, 1.6180975437164307], [1.4624799489974976, -1.2275655269622803, 0.5193592309951782, -0.07984402775764465, 0.9270763993263245, -1.4103718996047974, -1.4226611852645874], [0.14472295343875885, 1.7938600778579712, 2.0093724727630615, 0.2949538826942444, 0.7513294219970703, -0.18243154883384705, -3.0727903842926025], [1.2578076124191284, 1.6033166646957397, 0.1768345683813095, -0.7268227338790894, -1.0811058282852173, -0.8256985545158386, -0.8047336935997009], [0.2452024668455124, -0.17065595090389252, 1.7859413623809814, 0.10615631192922592, 2.071779489517212, 1.3555134534835815, 2.1555538177490234], [1.1192930936813354, -1.0464650392532349, -0.4744338393211365, 2.942124128341675, -0.1271485835313797, 0.13561983406543732, 0.06260623782873154], [0.4450668394565582, 0.04308529943227768, 0.26751136779785156, -1.6487914323806763, 0.9807942509651184, 1.598029613494873, 0.8008885383605957], [1.1160613298416138, 0.76044100522995, 1.4478405714035034, 1.119887113571167, -0.6046344637870789, -2.3446035385131836, -1.049460768699646], [-0.06965102255344391, 0.5012891292572021, 0.6749822497367859, -0.30564674735069275, 0.8981698751449585, -0.04259154573082924, -1.31403386592865], [1.450242280960083, -0.0864822044968605, 0.5927249193191528, 0.15977168083190918, -0.801447868347168, -0.22693030536174774, 0.8880646228790283]], "b": [-0.8990994691848755, -0.796931266784668, -0.2260465919971466, -0.375845730304718, -1.3242366313934326, -1.590276837348938, 1.2084161043167114]}