{"W": [[1.4371495246887207, -0.6853134632110596, -1.9720104932785034, -0.7074693441390991, -0.20618493854999542, 0.47522789239883423, -1.438364028930664], [0.2472628951072693, 2.615363597869873, -2.049706220626831, -0.5341842174530029, -1.282039999961853, 0.015212655067443848, -1.470852017402649], [-2.5061845779418945, 0.4080066978931427, -0.6565904021263123, 0.1949647217988968, -0.5019873976707458, -0.748191237449646, 0.29550790786743164], [3.8180949687957764, -0.9280506372451782, 0.02514880895614624, 0.6000587344169617, -0.2765524685382843, -0.5969720482826233, 0.4485752582550049], [-0.20333221554756165, 1.5064958333969116, -0.3894462287425995, 0.20650605857372284, -2.5604372024536133, 0.9848250150680542, -1.012799859046936], [-0.004344366956502199, 0.25390028953552246, 0.04215400665998459, 1.6518172025680542, 2.3550782203674316, -0.5170171856880188, 1.2564817667007446], [0.03505958989262581, 0.1090274304151535, 0.6430011987686157, 0.14716440439224243, 0.025745946913957596, -0.4870593547821045, 2.4931352138519287], [1.7631226778030396, -1.1953765153884888, 0.8267845511436462, 0.5117086172103882, 3.126986265182495, -0.7487662434577942, -1.7553890943527222], [-0.15877047181129456, 0.8950499296188354, 0.508796215057373, 1.1797006130218506, -1.6934127807617188, -1.1674813032150269, -2.5847208499908447], [0.9408465027809143, 0.47251924872398376, 0.28119388222694397, -2.4785797595977783, 0.8491227626800537, 0.6938479542732239, -0.007719013374298811], [0.33873823285102844, -1.8182127475738525, 0.25732141733169556, -1.2884786128997803, 0.5182991027832031, -0.8962974548339844, 0.9507661461830139], [1.0613616704940796, -0.3309048116207123, -1.6571133136749268, 2.2637760639190674, 1.0178642272949219, 0.4709621071815491, -0.8319398760795593], [0.12021687626838684, -0.4162292182445526, -0.2290641814470291, -1.171313762664795, 0.4564864933490753, 0.9386364221572876, 0.1718645691871643], [0.4573742747306824, 1.2024528980255127, 2.09706711769104, -0.22064639627933502, -0.6128302812576294, -1.7089900970458984, -0.7343857288360596], [-1.0092183351516724, -1.1283923387527466, 0.7981367111206055, 1.1851789951324463, 0.39673539996147156, -0.051763273775577545, 1.3355112075805664], [1.3394025564193726, 0.03587675467133522, 0.4658048450946808, -0.15173432230949402, -0.21367603540420532, -1.0813169479370117, -0.4044901430606842]], "b": [-0.7501065731048584, -0.561569333076477, 0.44858789443969727, 1.4400756359100342, -1.2959866523742676, -0.33202865719795227, 1.7718344926834106]}